1 100
</s> -0.005000 -0.003685 0.002556 -0.000413 0.000328 -0.002810 -0.004530 0.001789 0.001793 0.004347 -0.001165 0.000194 0.003310 -0.004654 -0.004465 0.000297 0.001711 -0.004923 -0.001166 -0.004332 -0.000825 0.001868 0.000890 0.004304 0.003462 0.000269 -0.004080 0.001539 -0.000840 0.002012 0.004103 0.002622 -0.002375 -0.004525 0.002361 -0.001718 0.001326 0.002564 0.004910 -0.001347 -0.002530 0.004826 0.002227 0.002534 0.001515 -0.004273 0.001316 0.003847 -0.002273 -0.000636 0.002665 -0.000223 -0.002622 -0.002251 -0.001407 -0.003335 -0.000135 0.003977 0.004092 -0.004394 0.004047 0.000045 0.000163 -0.001810 0.004866 -0.000060 -0.002339 -0.004093 0.004478 -0.004263 0.000007 -0.001159 -0.002229 0.004138 0.000297 -0.000356 0.004410 -0.004499 0.002615 0.002702 0.003278 -0.003746 -0.004841 0.001885 0.003682 0.001295 0.002362 0.002254 0.004995 0.003886 -0.002668 -0.001937 -0.001490 0.000133 0.000911 0.003460 -0.000879 0.003415 -0.002307 -0.000846 
