9 100
</s> -0.005000 0.004347 -0.001166 0.001539 0.001326 -0.004273 -0.001407 -0.001810 -0.002229 -0.003746 -0.002668 -0.000846 0.000344 -0.002872 0.004379 -0.001123 0.004833 -0.003002 -0.001107 0.003856 -0.001505 0.003609 -0.000607 0.000144 0.003007 -0.000111 -0.000497 0.003066 0.002734 0.003287 0.004522 -0.002178 0.001010 0.001347 -0.002730 0.002030 -0.003647 -0.000531 0.000139 0.001614 0.003292 0.003440 0.000824 -0.004201 -0.004332 -0.002197 -0.002793 0.000200 -0.004425 0.002390 0.001076 -0.000757 -0.003834 0.001874 0.004340 -0.004636 0.001530 0.001210 0.002719 -0.003286 0.000177 0.002582 -0.000983 0.000274 -0.002671 -0.003660 0.003258 0.002671 -0.000054 0.004772 -0.002679 -0.003516 -0.003408 -0.004776 0.001710 -0.004737 0.000060 0.000744 -0.000049 0.000221 0.004353 0.002105 -0.000865 0.003995 0.000068 -0.001554 -0.003855 -0.003507 0.003144 0.000222 -0.000800 -0.004271 0.000626 -0.001225 -0.001090 -0.004265 -0.003900 -0.003037 -0.000705 -0.001258 
Skywalker -0.004027 -0.001416 -0.005048 -0.000867 0.003232 0.001684 -0.003804 0.005522 0.004798 -0.005340 -0.002325 0.000318 0.000193 0.002259 -0.003156 -0.000254 -0.001312 -0.001987 -0.003723 -0.004857 -0.000407 -0.000289 0.003834 -0.004525 0.002537 0.001970 0.005408 -0.001796 0.002533 -0.004884 0.005031 -0.003780 -0.003537 0.002427 -0.001974 -0.004282 0.000198 -0.000320 0.002741 -0.001062 -0.005695 0.002162 0.003146 -0.003603 0.000445 0.003566 -0.005322 -0.000827 0.005593 0.002081 -0.004278 0.003833 -0.003620 -0.001179 -0.002882 -0.003273 -0.003680 0.004454 -0.005041 -0.001271 -0.004248 0.003957 -0.003152 0.002127 0.003436 0.003627 0.003891 -0.004962 -0.002546 -0.000935 0.000364 0.005780 0.005250 0.000858 -0.002055 0.002311 0.004102 -0.002540 0.000781 -0.002303 0.003112 0.000217 0.001221 -0.002665 -0.004366 -0.002227 0.005543 -0.000510 0.004826 0.004072 0.001110 0.002626 0.003729 -0.001289 0.005498 -0.000082 -0.004581 -0.001774 -0.003853 -0.005623 
Anakin 0.002740 0.000031 -0.001264 0.002209 0.005765 0.004401 -0.000332 0.000174 0.000650 0.001967 -0.001846 -0.000457 0.005113 -0.004053 -0.003789 -0.004078 -0.004212 0.001368 -0.005620 -0.004087 0.003436 0.000094 0.002357 -0.001142 0.002920 0.002101 -0.002974 -0.003478 -0.001875 -0.005014 -0.001016 -0.005748 0.003499 0.003491 0.002142 -0.004076 -0.002162 -0.001262 0.002648 0.001146 -0.002888 -0.000423 0.005727 0.004409 -0.001221 -0.001230 -0.005141 -0.004034 0.000775 0.000534 0.000336 0.004747 -0.004667 0.003820 -0.001676 -0.003373 0.002580 -0.005243 -0.000961 0.004846 0.003743 0.002464 -0.004827 0.004223 0.000164 0.005239 0.002694 0.000010 0.002342 -0.005374 -0.000791 0.001896 0.003894 0.004031 -0.005087 0.003070 0.005064 0.000267 0.000941 -0.005376 0.000304 -0.002581 0.003203 0.001691 -0.001183 0.002742 0.004315 -0.001477 0.005062 -0.002234 0.002957 0.004453 0.004401 0.001997 0.001726 -0.000261 0.005056 0.000793 0.001810 -0.000532 
Jedi -0.000413 0.003310 0.001868 0.004103 -0.001347 -0.002273 0.003977 -0.002339 -0.000356 0.003682 0.000133 -0.002128 0.002483 -0.004090 -0.001825 0.000872 0.000649 -0.003733 0.004017 -0.004289 0.004317 0.001004 0.002022 0.000767 -0.004809 -0.003004 -0.000540 0.004991 -0.000823 0.002640 -0.002308 -0.003082 -0.003423 0.001962 -0.003826 -0.000147 0.000881 -0.002207 0.004448 0.004865 0.001430 0.003171 0.001957 0.002830 -0.002842 0.001861 -0.003397 -0.002141 -0.004983 -0.004644 0.004540 -0.002554 0.000470 -0.003764 0.002691 0.000626 -0.003402 0.000935 0.004772 0.004649 -0.001314 -0.001109 -0.000784 -0.002562 -0.004968 -0.003288 -0.001706 0.004291 -0.001216 0.000238 -0.000964 -0.000319 -0.003446 0.000169 -0.003593 0.002137 0.001016 0.001986 -0.000587 -0.002549 -0.000133 0.001055 0.004203 -0.004952 0.002025 -0.001615 -0.000082 0.003837 0.004012 0.003695 0.003808 -0.001406 0.002694 -0.003783 0.001812 -0.000493 -0.000918 -0.000597 0.004954 0.001391 
Wars 0.000308 -0.004784 0.000865 0.002683 -0.002471 -0.000573 0.004117 -0.004101 0.004539 0.001296 0.000904 -0.003299 0.000632 -0.002344 0.003888 0.003491 -0.002587 0.001544 -0.000861 -0.001479 0.001570 0.003252 0.005059 0.003783 0.003999 0.004316 -0.001856 -0.003584 0.001877 0.001209 0.001995 0.004827 0.004975 0.002652 0.002686 0.003608 0.000162 -0.004331 -0.000327 -0.003563 0.000402 -0.004878 -0.002149 0.002525 -0.001170 -0.001938 0.002169 0.003367 0.003683 -0.003809 -0.001486 0.002758 -0.005142 0.004840 -0.000039 0.001497 -0.004625 0.002258 -0.000397 -0.002482 -0.000793 0.004517 -0.000376 0.002217 -0.002347 0.001156 0.003162 -0.002920 -0.003074 -0.004837 0.004995 0.004499 -0.004599 0.001846 0.004217 -0.004257 0.002379 0.001664 -0.003541 -0.004098 0.001577 -0.002260 0.001916 0.004430 -0.000723 -0.001741 -0.001236 -0.000796 0.002844 0.000898 -0.001628 -0.004132 0.001485 -0.004329 0.004244 0.000006 -0.002644 0.000861 0.001996 0.001440 
Star -0.002866 -0.004575 0.004357 -0.002395 0.004940 0.002739 -0.004469 0.004562 -0.004529 0.002393 0.003507 -0.003541 0.004007 -0.005080 0.001536 0.000917 -0.000156 0.001243 -0.003691 -0.002564 -0.002873 0.002620 0.004682 -0.000618 0.000302 0.003769 0.000151 0.001285 0.001850 -0.002953 -0.002167 -0.002624 -0.002443 0.001768 0.000282 0.003169 -0.000712 -0.001358 0.004504 0.001712 0.004214 -0.003471 0.002615 -0.000629 0.001281 -0.004994 -0.002104 0.001987 -0.004739 0.004808 0.003415 0.002039 -0.003364 -0.004749 0.002513 0.001164 0.001618 -0.000026 -0.001769 -0.004367 -0.001767 0.001131 -0.002181 -0.002362 0.001678 -0.004390 0.001392 -0.003048 -0.002741 0.002520 0.004778 0.002003 -0.001573 0.002449 -0.002842 0.000917 0.000252 -0.004100 0.000014 -0.001251 0.002030 0.002047 0.003302 -0.002269 -0.004022 -0.004528 0.003146 -0.000905 -0.003288 -0.001116 -0.003151 -0.003439 0.004085 -0.003649 -0.001342 0.002450 0.004703 -0.000684 -0.000990 0.001454 
character -0.004530 0.000297 0.003462 -0.004525 0.002227 -0.000223 0.004047 -0.004263 0.002615 0.002254 -0.000879 0.000717 0.001248 -0.000857 -0.003497 0.004554 -0.000360 0.003031 0.004475 -0.003649 0.001796 -0.000378 0.003513 0.002297 -0.000367 0.003900 0.003815 0.001164 -0.002947 -0.002865 0.002769 0.003197 -0.002664 0.001334 0.000539 0.000568 -0.002412 -0.002461 -0.001784 -0.001562 -0.002334 0.002069 -0.003288 -0.004937 0.001591 -0.003962 -0.004494 0.000778 -0.001224 -0.003117 0.004743 -0.000481 0.000994 -0.004196 0.001719 -0.001285 -0.003751 -0.004463 -0.000541 -0.003762 0.002135 -0.001379 -0.003950 -0.001172 -0.000748 -0.001525 -0.004547 -0.004110 -0.000639 0.000916 0.003505 0.003154 -0.003900 0.001985 -0.001199 0.004255 -0.000092 0.000487 0.002314 0.000518 -0.000925 0.000305 0.000274 0.003588 0.002662 0.000732 -0.003378 0.001513 0.000724 0.003119 0.002431 -0.000832 0.003784 -0.000224 0.003592 0.004328 0.003335 -0.001318 0.003493 0.002990 
of 0.001780 0.001674 0.000172 0.002369 0.002651 -0.002558 -0.000006 0.000073 0.002785 0.004969 0.003353 0.003003 0.003470 -0.004743 0.001722 0.000492 0.004528 -0.002532 -0.001028 0.002720 0.004116 0.004517 -0.002030 0.003632 -0.004272 0.000473 -0.000573 -0.005081 0.003382 -0.004317 0.002886 -0.003758 -0.003999 -0.004359 0.000873 0.002278 -0.001326 0.001707 -0.000329 0.000419 0.004583 0.002099 -0.004849 0.000857 0.002086 0.000252 -0.000353 0.001744 -0.000021 -0.001449 -0.002471 -0.002251 -0.000801 -0.000014 0.001771 -0.002847 0.004477 -0.000591 0.002345 0.000292 0.000777 0.000472 -0.002921 -0.004114 -0.003066 -0.001966 -0.004521 0.001945 -0.000292 0.003145 0.003661 0.000513 -0.003920 -0.004727 0.000758 0.004361 -0.003252 0.001087 -0.004682 0.000883 -0.000090 0.004343 -0.002660 -0.002204 -0.004073 -0.000154 -0.003302 -0.001961 -0.004551 0.000300 0.002257 -0.003940 -0.000053 0.002084 0.003030 -0.002019 -0.003032 -0.001185 0.003182 -0.001310 
appearances 0.001792 -0.004995 -0.004299 -0.001673 0.001831 -0.002056 0.000043 -0.001002 0.003461 0.003832 -0.002458 -0.004708 -0.003232 0.002028 -0.001380 -0.003701 -0.003958 -0.000244 -0.004027 -0.000739 -0.002401 0.001331 0.000572 0.001999 0.002328 -0.003500 -0.000282 -0.005204 0.002106 -0.001444 -0.000675 -0.001346 -0.002797 0.001187 -0.001693 -0.002126 -0.001151 0.001719 0.000348 0.000242 -0.002820 -0.000591 0.000258 0.000246 0.000357 0.002835 -0.000773 -0.001873 0.000955 0.001228 -0.002611 0.001950 -0.004478 0.002820 0.002441 -0.002899 -0.000168 0.000126 -0.003146 -0.003279 0.003762 -0.000249 0.002773 -0.000188 0.004771 0.000394 -0.003280 0.001938 0.003651 -0.001941 -0.001917 0.000967 0.000484 -0.002928 -0.003596 -0.000521 0.005097 0.001629 -0.004457 0.000855 -0.000104 -0.002753 -0.003435 0.004541 -0.000759 -0.002957 -0.004135 -0.004497 0.003378 0.004462 0.003959 0.001999 -0.003627 -0.002600 -0.000496 -0.003574 -0.003674 0.000987 0.002910 -0.001613 
